{"W1":[1.0596264600753785,-0.9396573305130005,0.7416311502456665,-1.1892077922821046,0.9840954542160034,-0.06545525789260864,-1.145792841911316,-0.5283891558647156,0.009182274341583252,-0.7622299194335938,0.13248920440673829,-0.29429325461387637,0.12854567170143128,-0.8312557339668274,1.083681344985962],"W2":[0.3392575681209564,-0.4113943576812744,-0.7664490938186646,1.3239511251449586,1.1580054759979249,1.7008788585662842,-0.818814218044281,1.385059118270874,-0.3547000586986542,1.2383424043655396],"b1":[-0.4023190140724182,-0.42775875329971316,0.6017730236053467,1.5113990306854249,0.5132690668106079],"b2":[-0.5241751670837402,0.37505102157592776]}
{"W1":[-0.3201284408569336,-0.18282517790794373,-0.22816574573516847,0.203863263130188,-0.39483702182769778,0.26972681283950808,0.14567285776138307,0.13233530521392823,-0.14302146434783936,-0.43777891993522646,-0.3150571286678314,0.06703436374664307,-0.05741026997566223,0.1150674819946289,0.4680107831954956,0.42653030157089236,-0.3784712255001068,0.4763944745063782,0.26140761375427248,0.1268075704574585,-0.30175164341926577,0.1923147439956665,0.4165276288986206,0.01122218370437622,0.15899121761322022],"W2":[-0.4974990487098694,-0.10319992899894715,-0.34879663586616518,-0.33396998047828677,0.43363475799560549,-0.3029685616493225,0.05317389965057373,0.48452228307724,-0.2199609875679016,-0.46358853578567507],"b1":[-0.06138905882835388,-0.01766103506088257,0.03715217113494873,0.42416006326675417,-0.31446319818496706],"b2":[0.1405753493309021,-0.119089275598526]}
