{"W1":[0.20536541938781739,0.5777201652526856,-0.11004061996936798,-0.0764138400554657,-0.3344559371471405,0.019322119653224946,-0.18310607969760896,0.30676326155662539,-0.3608963191509247],"W2":[0.4952467679977417,-0.3853049576282501,-0.04457408934831619,0.07739222049713135,0.23026806116104127,-0.4265744686126709],"b1":[-0.36127805709838869,0.3957620859146118,-0.16865047812461854],"b2":[0.2856162190437317,0.2166106253862381]}
{"W1":[0.20536541938781739,0.5777201652526856,-0.11004061996936798,-0.0764138400554657,-0.3344559371471405,0.019322119653224946,-0.18310607969760896,0.30676326155662539,-0.3608963191509247],"W2":[0.4952467679977417,-0.3853049576282501,-0.04457408934831619,0.07739222049713135,0.23026806116104127,-0.4265744686126709],"b1":[-0.36127805709838869,0.3957620859146118,-0.16865047812461854],"b2":[0.2856162190437317,0.2166106253862381]}
{"W1":[0.20536541938781739,0.5777201652526856,-0.11004061996936798,-0.0764138400554657,-0.3344559371471405,0.019322119653224946,-0.18310607969760896,0.30676326155662539,-0.3608963191509247],"W2":[0.4952467679977417,-0.3853049576282501,-0.04457408934831619,0.07739222049713135,0.23026806116104127,-0.4265744686126709],"b1":[-0.36127805709838869,0.3957620859146118,-0.16865047812461854],"b2":[0.2856162190437317,0.2166106253862381]}
